digraph Tree {
node [shape=box, style="filled, rounded", color="black", fontname="helvetica"] ;
edge [fontname="helvetica"] ;
0 [label="X[10] <= 10.75\nentropy = 1.0\nsamples = 1400\nvalue = [701, 699]", fillcolor="#fffffe"] ;
1 [label="X[1] <= 0.227\nentropy = 0.934\nsamples = 912\nvalue = [593, 319]", fillcolor="#f3c5a4"] ;
0 -> 1 [labeldistance=2.5, labelangle=45, headlabel="True"] ;
2 [label="X[6] <= 75.5\nentropy = 0.972\nsamples = 234\nvalue = [94, 140]", fillcolor="#bedff6"] ;
1 -> 2 ;
3 [label="entropy = 0.0\nsamples = 11\nvalue = [11, 0]", fillcolor="#e58139"] ;
2 -> 3 ;
4 [label="X[10] <= 9.65\nentropy = 0.952\nsamples = 223\nvalue = [83, 140]", fillcolor="#aed7f4"] ;
2 -> 4 ;
5 [label="entropy = 0.999\nsamples = 91\nvalue = [47, 44]", fillcolor="#fdf7f2"] ;
4 -> 5 ;
6 [label="entropy = 0.845\nsamples = 132\nvalue = [36, 96]", fillcolor="#83c2ef"] ;
4 -> 6 ;
7 [label="X[10] <= 9.767\nentropy = 0.833\nsamples = 678\nvalue = [499, 179]", fillcolor="#eeae80"] ;
1 -> 7 ;
8 [label="X[5] <= 14.5\nentropy = 0.684\nsamples = 407\nvalue = [333, 74]", fillcolor="#eb9d65"] ;
7 -> 8 ;
9 [label="entropy = 0.183\nsamples = 36\nvalue = [35, 1]", fillcolor="#e6853f"] ;
8 -> 9 ;
10 [label="entropy = 0.715\nsamples = 371\nvalue = [298, 73]", fillcolor="#eba06a"] ;
8 -> 10 ;
11 [label="X[2] <= 0.155\nentropy = 0.963\nsamples = 271\nvalue = [166, 105]", fillcolor="#f5d1b6"] ;
7 -> 11 ;
12 [label="entropy = 0.0\nsamples = 20\nvalue = [20, 0]", fillcolor="#e58139"] ;
11 -> 12 ;
13 [label="entropy = 0.981\nsamples = 251\nvalue = [146, 105]", fillcolor="#f8dcc7"] ;
11 -> 13 ;
14 [label="X[10] <= 11.725\nentropy = 0.763\nsamples = 488\nvalue = [108, 380]", fillcolor="#71b9ec"] ;
0 -> 14 [labeldistance=2.5, labelangle=-45, headlabel="False"] ;
15 [label="X[5] <= 10.5\nentropy = 0.923\nsamples = 257\nvalue = [87, 170]", fillcolor="#9ecff2"] ;
14 -> 15 ;
16 [label="X[7] <= 0.996\nentropy = 0.503\nsamples = 18\nvalue = [16, 2]", fillcolor="#e89152"] ;
15 -> 16 ;
17 [label="entropy = 0.323\nsamples = 17\nvalue = [16, 1]", fillcolor="#e78945"] ;
16 -> 17 ;
18 [label="entropy = 0.0\nsamples = 1\nvalue = [0, 1]", fillcolor="#399de5"] ;
16 -> 18 ;
19 [label="X[0] <= 7.85\nentropy = 0.878\nsamples = 239\nvalue = [71, 168]", fillcolor="#8dc6f0"] ;
15 -> 19 ;
20 [label="entropy = 0.803\nsamples = 204\nvalue = [50, 154]", fillcolor="#79bded"] ;
19 -> 20 ;
21 [label="entropy = 0.971\nsamples = 35\nvalue = [21, 14]", fillcolor="#f6d5bd"] ;
19 -> 21 ;
22 [label="X[5] <= 9.5\nentropy = 0.439\nsamples = 231\nvalue = [21, 210]", fillcolor="#4da7e8"] ;
14 -> 22 ;
23 [label="X[0] <= 6.95\nentropy = 0.863\nsamples = 7\nvalue = [5, 2]", fillcolor="#efb388"] ;
22 -> 23 ;
24 [label="entropy = 0.0\nsamples = 5\nvalue = [5, 0]", fillcolor="#e58139"] ;
23 -> 24 ;
25 [label="entropy = 0.0\nsamples = 2\nvalue = [0, 2]", fillcolor="#399de5"] ;
23 -> 25 ;
26 [label="X[6] <= 135.5\nentropy = 0.371\nsamples = 224\nvalue = [16, 208]", fillcolor="#48a5e7"] ;
22 -> 26 ;
27 [label="entropy = 0.445\nsamples = 173\nvalue = [16, 157]", fillcolor="#4da7e8"] ;
26 -> 27 ;
28 [label="entropy = 0.0\nsamples = 51\nvalue = [0, 51]", fillcolor="#399de5"] ;
26 -> 28 ;
}